<?xml version="1.0"?>
<opencv_storage>
<stage14>
  <maxWeakCount>6</maxWeakCount>
  <stageThreshold>-8.1684088706970215e-01</stageThreshold>
  <weakClassifiers>
    <_>
      <internalNodes>
        0 -1 2705365 -536877057 -556861565 1100142737 -2013465657
        -221294187 2072397027 -352418326 2128603134</internalNodes>
      <leafValues>
        -6.3331735134124756e-01 2.4637681245803833e-01</leafValues></_>
    <_>
      <internalNodes>
        0 -1 1113523 -41217 -32771 -402653350 -5079042 -1073782817
        -50626817 -16777220 -9273994</internalNodes>
      <leafValues>
        -4.4792786240577698e-01 5.4547280073165894e-01</leafValues></_>
    <_>
      <internalNodes>
        0 -1 2685777 -207 -819530814 -103441515 -29332 -661671169
        -814755008 1442510004 1474032420</internalNodes>
      <leafValues>
        -6.3791924715042114e-01 3.3832538127899170e-01</leafValues></_>
    <_>
      <internalNodes>
        0 -1 1482684 -721438030 -1359222358 -2121577093 -1374459836
        -221598944 1255016712 -290268213 1929069284</internalNodes>
      <leafValues>
        -7.4225050210952759e-01 2.8707137703895569e-01</leafValues></_>
    <_>
      <internalNodes>
        0 -1 2153518 1384317457 491645418 -505685057 -2498121 -632167812
        -3821114 -91708710 -1404704764</internalNodes>
      <leafValues>
        -5.4610753059387207e-01 4.2307543754577637e-01</leafValues></_>
    <_>
      <internalNodes>
        0 -1 28041 -703707410 1456393719 -1056062964 -856710528
        1098924252 1000280785 1628778627 2138527601</internalNodes>
      <leafValues>
        -6.8751740455627441e-01 3.5988497734069824e-01</leafValues></_></weakClassifiers></stage14>
</opencv_storage>
