<?xml version="1.0"?>
<opencv_storage>
<stage12>
  <maxWeakCount>6</maxWeakCount>
  <stageThreshold>-1.3745409250259399e+00</stageThreshold>
  <weakClassifiers>
    <_>
      <internalNodes>
        0 -1 2225284 -216026149 435270037 427095901 499381203 -161231617
        1057733857 -1983182609 -1914702629</internalNodes>
      <leafValues>
        -6.7622953653335571e-01 2.2099447250366211e-01</leafValues></_>
    <_>
      <internalNodes>
        0 -1 1511337 -303170640 -6440517 -1713381892 -1106058884
        -589427932 770973861 -872444433 104304631</internalNodes>
      <leafValues>
        -7.9572367668151855e-01 2.3754809796810150e-01</leafValues></_>
    <_>
      <internalNodes>
        0 -1 2663743 -8981 -605824792 536860151 1577016564 -133265
        469721085 1476351247 1610608127</internalNodes>
      <leafValues>
        -4.5562404394149780e-01 5.0305277109146118e-01</leafValues></_>
    <_>
      <internalNodes>
        0 -1 54793 -1027152730 1437835032 327916791 2142037367
        -789076307 -624918279 -243054050 1462103343</internalNodes>
      <leafValues>
        -5.2586126327514648e-01 4.5168256759643555e-01</leafValues></_>
    <_>
      <internalNodes>
        0 -1 1154169 1989410815 1408905495 1132668250 -539491878
        1394655664 798609381 178476264 1001978794</internalNodes>
      <leafValues>
        -4.9012517929077148e-01 4.8148685693740845e-01</leafValues></_>
    <_>
      <internalNodes>
        0 -1 2721850 -25825289 -218103809 -1090539538 1727790587
        -272654513 -2236585 -18433 -467927105</internalNodes>
      <leafValues>
        -4.2292588949203491e-01 5.8695852756500244e-01</leafValues></_></weakClassifiers></stage12>
</opencv_storage>
