<?xml version="1.0"?>
<opencv_storage>
<stage13>
  <maxWeakCount>6</maxWeakCount>
  <stageThreshold>-1.5419430732727051e+00</stageThreshold>
  <weakClassifiers>
    <_>
      <internalNodes>
        0 -1 2583804 -1082146817 -164397 -545195009 -2098179 -1148723461
        -68187988 -1290020113 -9991</internalNodes>
      <leafValues>
        -6.0444253683090210e-01 3.9187914133071899e-01</leafValues></_>
    <_>
      <internalNodes>
        0 -1 2635252 -705727233 269490422 118557482 2134319239 665159167
        981568491 862921078 -1146100021</internalNodes>
      <leafValues>
        -5.2626568078994751e-01 4.1685715317726135e-01</leafValues></_>
    <_>
      <internalNodes>
        0 -1 1713451 -770721592 1472173277 -887176650 435048636
        1325786597 2078245595 2107589586 1006629595</internalNodes>
      <leafValues>
        -6.5865260362625122e-01 3.2102644443511963e-01</leafValues></_>
    <_>
      <internalNodes>
        0 -1 1432933 -1980511008 -679931393 -1648321025 -1080308765
        -113049977 -290613246 -6141561 54847298</internalNodes>
      <leafValues>
        -6.5463727712631226e-01 3.2523277401924133e-01</leafValues></_>
    <_>
      <internalNodes>
        0 -1 569616 551988675 -536849493 -1718480393 -1116299285
        -801709650 -806502084 -605228049 -430718425</internalNodes>
      <leafValues>
        -4.8620185256004333e-01 4.9239978194236755e-01</leafValues></_>
    <_>
      <internalNodes>
        0 -1 118453 -706558194 -1209355944 -2091837365 1295891452
        -712412200 -389128107 1703629044 -632043220</internalNodes>
      <leafValues>
        -5.8793491125106812e-01 4.2191708087921143e-01</leafValues></_></weakClassifiers></stage13>
</opencv_storage>
