<?xml version="1.0"?>
<opencv_storage>
<cascade>
  <stageType>BOOST</stageType>
  <featureType>LBP</featureType>
  <height>80</height>
  <width>80</width>
  <stageParams>
    <boostType>GAB</boostType>
    <minHitRate>9.9500000476837158e-01</minHitRate>
    <maxFalseAlarm>5.0000000000000000e-01</maxFalseAlarm>
    <weightTrimRate>9.4999999999999996e-01</weightTrimRate>
    <maxDepth>1</maxDepth>
    <maxWeakCount>100</maxWeakCount></stageParams>
  <featureParams>
    <maxCatCount>256</maxCatCount>
    <featSize>1</featSize></featureParams>
  <stageNum>15</stageNum>
  <stages>
    <!-- stage 0 -->
    <_>
      <maxWeakCount>2</maxWeakCount>
      <stageThreshold>-1.7312341928482056e-01</stageThreshold>
      <weakClassifiers>
        <_>
          <internalNodes>
            0 -1 10 -779749162 -788463488 1107345409 1359036417
            -2146924405 -1996488640 134252555 1258588803</internalNodes>
          <leafValues>
            -9.5918369293212891e-01 8.4615385532379150e-01</leafValues></_>
        <_>
          <internalNodes>
            0 -1 16 -721305094 -787939071 1073741825 957419537
            -1073216887 553648128 -2147450869 2000748555</internalNodes>
          <leafValues>
            -9.4209647178649902e-01 7.8606027364730835e-01</leafValues></_></weakClassifiers></_>
    <!-- stage 1 -->
    <_>
      <maxWeakCount>2</maxWeakCount>
      <stageThreshold>-1.9172786176204681e-01</stageThreshold>
      <weakClassifiers>
        <_>
          <internalNodes>
            0 -1 8 -1689658913 -174882415 16912653 1493286929
            -2144231271 -1172832128 189183 1606140158</internalNodes>
          <leafValues>
            -8.8888889551162720e-01 6.5432101488113403e-01</leafValues></_>
        <_>
          <internalNodes>
            0 -1 4 -787132961 1427325201 -2113896035 956322841 402915357
            -1861533696 -939519857 -83638173</internalNodes>
          <leafValues>
            -8.4604883193969727e-01 8.1285279989242554e-01</leafValues></_></weakClassifiers></_>
    <!-- stage 2 -->
    <_>
      <maxWeakCount>2</maxWeakCount>
      <stageThreshold>-1.7439699172973633e-01</stageThreshold>
      <weakClassifiers>
        <_>
          <internalNodes>
            0 -1 2 -653134369 -652099175 16797724 -1336700880 -501139347
            1594704260 -2113925735 -170668881</internalNodes>
          <leafValues>
            -8.6531984806060791e-01 6.9934642314910889e-01</leafValues></_>
        <_>
          <internalNodes>
            0 -1 17 1399002443 -783191013 -1987948267 419562428
            415236427 -1056849660 -535848226 -12911643</internalNodes>
          <leafValues>
            -8.7374341487884521e-01 7.3819375038146973e-01</leafValues></_></weakClassifiers></_>
    <!-- stage 3 -->
    <_>
      <maxWeakCount>2</maxWeakCount>
      <stageThreshold>-1.5491841733455658e-01</stageThreshold>
      <weakClassifiers>
        <_>
          <internalNodes>
            0 -1 0 -577536515 -243171199 945882377 -234745263 152371459
            -1551348480 -525320039 -148646069</internalNodes>
          <leafValues>
            -8.7796610593795776e-01 7.0322579145431519e-01</leafValues></_>
        <_>
          <internalNodes>
            0 -1 29 -450656813 1183683089 1937052049 -2132082405
            -397809457 759939209 -2135454554 -510924657</internalNodes>
          <leafValues>
            -8.5814422369003296e-01 7.7273696660995483e-01</leafValues></_></weakClassifiers></_>
    <!-- stage 4 -->
    <_>
      <maxWeakCount>2</maxWeakCount>
      <stageThreshold>-1.8942326307296753e-01</stageThreshold>
      <weakClassifiers>
        <_>
          <internalNodes>
            0 -1 9 -715454665 -1865089019 1346420954 776512306 193396909
            781516805 -1341488470 -278737249</internalNodes>
          <leafValues>
            -8.4918034076690674e-01 7.5172412395477295e-01</leafValues></_>
        <_>
          <internalNodes>
            0 -1 18 1576140689 1460994304 -1073708783 -652140475
            -1742613607 -1156939447 -1476112117 722454667</internalNodes>
          <leafValues>
            -9.4114738702774048e-01 7.0644497871398926e-01</leafValues></_></weakClassifiers></_>
    <!-- stage 5 -->
    <_>
      <maxWeakCount>2</maxWeakCount>
      <stageThreshold>-2.6496636867523193e-01</stageThreshold>
      <weakClassifiers>
        <_>
          <internalNodes>
            0 -1 6 -712771617 -786873900 -1073725183 -179236733
            -536674117 -763256576 749240715 -278462399</internalNodes>
          <leafValues>
            -8.7500000000000000e-01 6.2962961196899414e-01</leafValues></_>
        <_>
          <internalNodes>
            0 -1 30 -1787308273 471860622 1099982923 -1024431467
            639259211 1157673105 -670517113 -255333953</internalNodes>
          <leafValues>
            -8.9459598064422607e-01 7.4077606201171875e-01</leafValues></_></weakClassifiers></_>
    <!-- stage 6 -->
    <_>
      <maxWeakCount>2</maxWeakCount>
      <stageThreshold>-2.6000249385833740e-01</stageThreshold>
      <weakClassifiers>
        <_>
          <internalNodes>
            0 -1 22 283336191 -1181018725 -1873444469 -1105887104
            481412009 -377429504 -2122182579 -1161941808</internalNodes>
          <leafValues>
            -8.8111889362335205e-01 6.2195122241973877e-01</leafValues></_>
        <_>
          <internalNodes>
            0 -1 12 622029807 -1161463669 -265606985 -536188784
            -439836157 -643607360 -1602146751 -261948486</internalNodes>
          <leafValues>
            -8.8195371627807617e-01 7.4348747730255127e-01</leafValues></_></weakClassifiers></_>
    <!-- stage 7 -->
    <_>
      <maxWeakCount>2</maxWeakCount>
      <stageThreshold>-2.8409799933433533e-01</stageThreshold>
      <weakClassifiers>
        <_>
          <internalNodes>
            0 -1 15 1660487007 1258639897 1111523871 -1300901863
            407964791 -392035757 -1436446057 -46805957</internalNodes>
          <leafValues>
            -8.9361703395843506e-01 6.0714286565780640e-01</leafValues></_>
        <_>
          <internalNodes>
            0 -1 7 -243149921 1498894593 65665 -716090317 134316179
            42270849 1073906859 -680049662</internalNodes>
          <leafValues>
            -8.9124089479446411e-01 6.9588440656661987e-01</leafValues></_></weakClassifiers></_>
    <!-- stage 8 -->
    <_>
      <maxWeakCount>2</maxWeakCount>
      <stageThreshold>-2.3069217801094055e-01</stageThreshold>
      <weakClassifiers>
        <_>
          <internalNodes>
            0 -1 1 -198444257 1703105681 -1509949370 43837697
            -2096413691 -1207173038 -365920495 -25042617</internalNodes>
          <leafValues>
            -8.6896550655364990e-01 6.3749998807907104e-01</leafValues></_>
        <_>
          <internalNodes>
            0 -1 27 -775684113 -1971322559 -784167467 -1078362048
            1073983703 1294008588 -1876949856 -676597549</internalNodes>
          <leafValues>
            -8.6819219589233398e-01 6.9559675455093384e-01</leafValues></_></weakClassifiers></_>
    <!-- stage 9 -->
    <_>
      <maxWeakCount>2</maxWeakCount>
      <stageThreshold>-2.7896526455879211e-01</stageThreshold>
      <weakClassifiers>
        <_>
          <internalNodes>
            0 -1 14 -654189161 319111169 620822923 -50265599 -1725897985
            -1718017906 -2146654070 -1339977589</internalNodes>
          <leafValues>
            -8.2608693838119507e-01 6.4238411188125610e-01</leafValues></_>
        <_>
          <internalNodes>
            0 -1 20 336974867 538562689 290462175 -617066112 1623195785
            999915529 -1465347580 -2126544759</internalNodes>
          <leafValues>
            -9.2134934663772583e-01 6.0247123241424561e-01</leafValues></_></weakClassifiers></_>
    <!-- stage 10 -->
    <_>
      <maxWeakCount>2</maxWeakCount>
      <stageThreshold>-1.1255388706922531e-01</stageThreshold>
      <weakClassifiers>
        <_>
          <internalNodes>
            0 -1 13 -754854557 -801013567 270027420 -587120374
            1344389801 -2128609271 1745587211 -1362442229</internalNodes>
          <leafValues>
            -7.7777779102325439e-01 7.0370370149612427e-01</leafValues></_>
        <_>
          <internalNodes>
            0 -1 23 -112635573 1406375255 285513859 421740550 180491
            -366984686 -1442790757 -771665762</internalNodes>
          <leafValues>
            -8.1625759601593018e-01 7.4174129962921143e-01</leafValues></_></weakClassifiers></_>
    <!-- stage 11 -->
    <_>
      <maxWeakCount>2</maxWeakCount>
      <stageThreshold>-2.6537847518920898e-01</stageThreshold>
      <weakClassifiers>
        <_>
          <internalNodes>
            0 -1 26 -767304246 -1878949628 -2128084849 16828558
            -796816950 939556994 -1585217397 -38943345</internalNodes>
          <leafValues>
            -8.9743590354919434e-01 5.3672313690185547e-01</leafValues></_>
        <_>
          <internalNodes>
            0 -1 3 -448665433 -1727737835 101023753 -1262943149
            -771438500 251662600 147570955 -19679153</internalNodes>
          <leafValues>
            -8.0210161209106445e-01 7.1545386314392090e-01</leafValues></_></weakClassifiers></_>
    <!-- stage 12 -->
    <_>
      <maxWeakCount>3</maxWeakCount>
      <stageThreshold>-1.0382021665573120e+00</stageThreshold>
      <weakClassifiers>
        <_>
          <internalNodes>
            0 -1 24 -732572293 21446656 -1609515008 8503369 -1073362698
            1627586704 -2130580853 -654859541</internalNodes>
          <leafValues>
            -8.6428570747375488e-01 5.4117649793624878e-01</leafValues></_>
        <_>
          <internalNodes>
            0 -1 5 -448271853 -1056947954 -1845442065 173048129
            -393672142 -1711226302 -929031611 -688788994</internalNodes>
          <leafValues>
            -8.4685283899307251e-01 6.6271221637725830e-01</leafValues></_>
        <_>
          <internalNodes>
            0 -1 28 -1052259529 -1181638511 268517539 -1124822226
            -2147441656 612573332 1267449871 -256646966</internalNodes>
          <leafValues>
            -8.3662861585617065e-01 7.4916964769363403e-01</leafValues></_></weakClassifiers></_>
    <!-- stage 13 -->
    <_>
      <maxWeakCount>3</maxWeakCount>
      <stageThreshold>-9.6201545000076294e-01</stageThreshold>
      <weakClassifiers>
        <_>
          <internalNodes>
            0 -1 11 1359866783 -798916597 577669 -1962860414 -702971189
            268537864 -654308945 1536147595</internalNodes>
          <leafValues>
            -8.7769782543182373e-01 5.4651165008544922e-01</leafValues></_>
        <_>
          <internalNodes>
            0 -1 31 1481100599 -1529737141 -1859567289 -489848533
            -1061035581 -1350278807 -729291483 -1712412661</internalNodes>
          <leafValues>
            -8.0409348011016846e-01 7.3868083953857422e-01</leafValues></_>
        <_>
          <internalNodes>
            0 -1 25 137903979 -662158712 287506899 -744830895 1644331049
            -1471117055 -402341338 -1663546628</internalNodes>
          <leafValues>
            -8.2299846410751343e-01 7.4317198991775513e-01</leafValues></_></weakClassifiers></_>
    <!-- stage 14 -->
    <_>
      <maxWeakCount>2</maxWeakCount>
      <stageThreshold>-3.4347188472747803e-01</stageThreshold>
      <weakClassifiers>
        <_>
          <internalNodes>
            0 -1 21 836178007 -2117520477 -1526659878 -2053039359
            -1580498289 -703362864 -242640725 -1080685304</internalNodes>
          <leafValues>
            -8.7545788288116455e-01 5.0282484292984009e-01</leafValues></_>
        <_>
          <internalNodes>
            0 -1 19 -441855501 672759945 17024003 -1216249851
            -1031556373 -2012741621 -750544727 -1156340919</internalNodes>
          <leafValues>
            -8.4629672765731812e-01 6.9285070896148682e-01</leafValues></_></weakClassifiers></_></stages>
  <features>
    <_>
      <rect>
        0 52 6 5</rect></_>
    <_>
      <rect>
        1 37 2 5</rect></_>
    <_>
      <rect>
        1 66 10 1</rect></_>
    <_>
      <rect>
        3 51 3 2</rect></_>
    <_>
      <rect>
        3 63 10 5</rect></_>
    <_>
      <rect>
        4 52 3 3</rect></_>
    <_>
      <rect>
        5 9 14 12</rect></_>
    <_>
      <rect>
        6 3 13 17</rect></_>
    <_>
      <rect>
        6 6 21 20</rect></_>
    <_>
      <rect>
        6 56 4 6</rect></_>
    <_>
      <rect>
        7 9 20 20</rect></_>
    <_>
      <rect>
        7 17 22 20</rect></_>
    <_>
      <rect>
        7 44 2 2</rect></_>
    <_>
      <rect>
        9 22 10 10</rect></_>
    <_>
      <rect>
        11 10 21 9</rect></_>
    <_>
      <rect>
        13 71 7 2</rect></_>
    <_>
      <rect>
        20 17 11 17</rect></_>
    <_>
      <rect>
        21 70 3 2</rect></_>
    <_>
      <rect>
        24 9 17 19</rect></_>
    <_>
      <rect>
        30 28 16 15</rect></_>
    <_>
      <rect>
        31 72 14 2</rect></_>
    <_>
      <rect>
        33 74 3 2</rect></_>
    <_>
      <rect>
        35 68 6 4</rect></_>
    <_>
      <rect>
        37 10 11 13</rect></_>
    <_>
      <rect>
        41 19 12 18</rect></_>
    <_>
      <rect>
        41 27 1 1</rect></_>
    <_>
      <rect>
        41 29 13 12</rect></_>
    <_>
      <rect>
        53 64 8 2</rect></_>
    <_>
      <rect>
        65 18 5 6</rect></_>
    <_>
      <rect>
        65 53 5 2</rect></_>
    <_>
      <rect>
        66 22 4 2</rect></_>
    <_>
      <rect>
        69 43 2 2</rect></_></features></cascade>
</opencv_storage>
