<?xml version="1.0"?>
<opencv_storage>
<cascade>
  <stageType>BOOST</stageType>
  <featureType>LBP</featureType>
  <height>60</height>
  <width>60</width>
  <stageParams>
    <boostType>GAB</boostType>
    <minHitRate>9.9500000476837158e-01</minHitRate>
    <maxFalseAlarm>5.0000000000000000e-01</maxFalseAlarm>
    <weightTrimRate>9.4999999999999996e-01</weightTrimRate>
    <maxDepth>1</maxDepth>
    <maxWeakCount>100</maxWeakCount></stageParams>
  <featureParams>
    <maxCatCount>256</maxCatCount>
    <featSize>1</featSize></featureParams>
  <stageNum>8</stageNum>
  <stages>
    <!-- stage 0 -->
    <_>
      <maxWeakCount>2</maxWeakCount>
      <stageThreshold>5.1796264946460724e-02</stageThreshold>
      <weakClassifiers>
        <_>
          <internalNodes>
            0 -1 15 805253399 100835327 -16778093 -1359101953
            -1073741897 1123330229 -14575 -16393</internalNodes>
          <leafValues>
            -7.7865612506866455e-01 9.2974239587783813e-01</leafValues></_>
        <_>
          <internalNodes>
            0 -1 5 -678968473 -804552699 -1073626623 1342276167
            -2121164448 33028 -1064271685 1114346255</internalNodes>
          <leafValues>
            -8.7794613838195801e-01 8.7977415323257446e-01</leafValues></_></weakClassifiers></_>
    <!-- stage 1 -->
    <_>
      <maxWeakCount>2</maxWeakCount>
      <stageThreshold>2.1122556179761887e-02</stageThreshold>
      <weakClassifiers>
        <_>
          <internalNodes>
            0 -1 10 -761182955 -2143154173 -973074432 -1996422573
            -536848046 134356993 -1065156603 548106795</internalNodes>
          <leafValues>
            -9.1588783264160156e-01 8.4978538751602173e-01</leafValues></_>
        <_>
          <internalNodes>
            0 -1 13 -153 -16777217 -2 -520093697 -139 2147483519 -139
            -201588737</internalNodes>
          <leafValues>
            -7.5381886959075928e-01 9.3701040744781494e-01</leafValues></_></weakClassifiers></_>
    <!-- stage 2 -->
    <_>
      <maxWeakCount>2</maxWeakCount>
      <stageThreshold>8.2284830510616302e-02</stageThreshold>
      <weakClassifiers>
        <_>
          <internalNodes>
            0 -1 7 -84124289 -164321 -65538 2130476927 -65729 -65537
            -65553 -133103618</internalNodes>
          <leafValues>
            -7.7868854999542236e-01 8.9449542760848999e-01</leafValues></_>
        <_>
          <internalNodes>
            0 -1 1 1895879117 1460736146 -2147418093 285278337 536887434
            427819009 4197547 -513781726</internalNodes>
          <leafValues>
            -8.0969899892807007e-01 8.6097335815429688e-01</leafValues></_></weakClassifiers></_>
    <!-- stage 3 -->
    <_>
      <maxWeakCount>2</maxWeakCount>
      <stageThreshold>5.1231801509857178e-02</stageThreshold>
      <weakClassifiers>
        <_>
          <internalNodes>
            0 -1 8 -1073758209 -1342177281 -1 -1342177283 1073725435
            2147483647 1061117429 -56360963</internalNodes>
          <leafValues>
            -7.8242677450180054e-01 8.7755101919174194e-01</leafValues></_>
        <_>
          <internalNodes>
            0 -1 14 1390669719 -876396273 -2097111039 71616576
            -1786281179 1342309346 -607268221 1087891599</internalNodes>
          <leafValues>
            -8.2631921768188477e-01 8.5419398546218872e-01</leafValues></_></weakClassifiers></_>
    <!-- stage 4 -->
    <_>
      <maxWeakCount>2</maxWeakCount>
      <stageThreshold>-1.0172359645366669e-02</stageThreshold>
      <weakClassifiers>
        <_>
          <internalNodes>
            0 -1 9 135014181 -1223669435 18186703 1652949249 176226969
            -1978891239 672674456 -71317504</internalNodes>
          <leafValues>
            -8.9954340457916260e-01 8.6117136478424072e-01</leafValues></_>
        <_>
          <internalNodes>
            0 -1 11 -352952453 -67174401 -262145 -285278337 -17383425 -1
            -1074003969 -84213762</internalNodes>
          <leafValues>
            -8.0171209573745728e-01 8.8937103748321533e-01</leafValues></_></weakClassifiers></_>
    <!-- stage 5 -->
    <_>
      <maxWeakCount>2</maxWeakCount>
      <stageThreshold>-7.4510209262371063e-02</stageThreshold>
      <weakClassifiers>
        <_>
          <internalNodes>
            0 -1 3 1396922975 -6749 -1 -262145 -1 536870911 -295397
            -771619969</internalNodes>
          <leafValues>
            -8.2805430889129639e-01 8.3442264795303345e-01</leafValues></_>
        <_>
          <internalNodes>
            0 -1 4 -1487799653 -1610247929 -1878818688 -785383424
            -2130186223 940160131 923410645 1805638925</internalNodes>
          <leafValues>
            -9.0893286466598511e-01 7.5802981853485107e-01</leafValues></_></weakClassifiers></_>
    <!-- stage 6 -->
    <_>
      <maxWeakCount>2</maxWeakCount>
      <stageThreshold>3.9915382862091064e-02</stageThreshold>
      <weakClassifiers>
        <_>
          <internalNodes>
            0 -1 12 -83886209 -8650903 -1 -495517825 -1074266242
            2139094903 -17000193 -495779969</internalNodes>
          <leafValues>
            -7.4193549156188965e-01 8.8888889551162720e-01</leafValues></_>
        <_>
          <internalNodes>
            0 -1 0 -805118772 -738180864 -1073216633 1887897600
            -916139640 -804157440 -1065336821 765408007</internalNodes>
          <leafValues>
            -8.4897351264953613e-01 7.9659992456436157e-01</leafValues></_></weakClassifiers></_>
    <!-- stage 7 -->
    <_>
      <maxWeakCount>2</maxWeakCount>
      <stageThreshold>9.3312419950962067e-02</stageThreshold>
      <weakClassifiers>
        <_>
          <internalNodes>
            0 -1 6 -1074020353 -1073741825 1344373019 -1727167636
            541362875 1073737737 1040143861 -34764749</internalNodes>
          <leafValues>
            -7.7235770225524902e-01 8.9861750602722168e-01</leafValues></_>
        <_>
          <internalNodes>
            0 -1 2 -872064965 -2122951069 -1861644197 -1372241515
            -1466321397 -469163901 -2113819990 -367523477</internalNodes>
          <leafValues>
            -7.3857879638671875e-01 8.6567014455795288e-01</leafValues></_></weakClassifiers></_></stages>
  <features>
    <_>
      <rect>
        0 0 7 20</rect></_>
    <_>
      <rect>
        2 11 15 13</rect></_>
    <_>
      <rect>
        51 2 2 5</rect></_>
    <_>
      <rect>
        53 1 2 9</rect></_>
    <_>
      <rect>
        53 36 2 6</rect></_>
    <_>
      <rect>
        54 16 2 6</rect></_>
    <_>
      <rect>
        54 31 2 9</rect></_>
    <_>
      <rect>
        55 8 1 4</rect></_>
    <_>
      <rect>
        56 31 1 8</rect></_>
    <_>
      <rect>
        56 41 1 6</rect></_>
    <_>
      <rect>
        57 6 1 16</rect></_>
    <_>
      <rect>
        57 10 1 5</rect></_>
    <_>
      <rect>
        57 16 1 4</rect></_>
    <_>
      <rect>
        57 23 1 1</rect></_>
    <_>
      <rect>
        57 23 1 5</rect></_>
    <_>
      <rect>
        57 42 1 2</rect></_></features></cascade>
</opencv_storage>
