<?xml version="1.0"?>
<opencv_storage>
<cascade>
  <stageType>BOOST</stageType>
  <featureType>LBP</featureType>
  <height>60</height>
  <width>60</width>
  <stageParams>
    <boostType>GAB</boostType>
    <minHitRate>9.9500000476837158e-01</minHitRate>
    <maxFalseAlarm>5.0000000000000000e-01</maxFalseAlarm>
    <weightTrimRate>9.4999999999999996e-01</weightTrimRate>
    <maxDepth>1</maxDepth>
    <maxWeakCount>100</maxWeakCount></stageParams>
  <featureParams>
    <maxCatCount>256</maxCatCount>
    <featSize>1</featSize></featureParams>
  <stageNum>10</stageNum>
  <stages>
    <!-- stage 0 -->
    <_>
      <maxWeakCount>2</maxWeakCount>
      <stageThreshold>1.4407038688659668e-01</stageThreshold>
      <weakClassifiers>
        <_>
          <internalNodes>
            0 -1 6 -1073741825 -1358954499 2147483645 -1358954497
            1073690485 1073707007 2088763405 2012215295</internalNodes>
          <leafValues>
            -8.0672270059585571e-01 9.1830062866210938e-01</leafValues></_>
        <_>
          <internalNodes>
            0 -1 19 219377943 100828561 8396947 -2036824047 -1609424985
            1123330229 -386283759 -29853</internalNodes>
          <leafValues>
            -7.6268810033798218e-01 9.5079308748245239e-01</leafValues></_></weakClassifiers></_>
    <!-- stage 1 -->
    <_>
      <maxWeakCount>2</maxWeakCount>
      <stageThreshold>-4.0231231600046158e-02</stageThreshold>
      <weakClassifiers>
        <_>
          <internalNodes>
            0 -1 10 -545367749 -65660 2147483647 -16859137 -98305 -5
            -8456433 -30244865</internalNodes>
          <leafValues>
            -8.0672270059585571e-01 9.1830062866210938e-01</leafValues></_>
        <_>
          <internalNodes>
            0 -1 18 -1870267597 -2138657837 -867917822 -2069323414
            -2111613353 10695937 -526269917 1454613443</internalNodes>
          <leafValues>
            -9.5853185653686523e-01 8.2816576957702637e-01</leafValues></_></weakClassifiers></_>
    <!-- stage 2 -->
    <_>
      <maxWeakCount>2</maxWeakCount>
      <stageThreshold>7.8903168439865112e-02</stageThreshold>
      <weakClassifiers>
        <_>
          <internalNodes>
            0 -1 12 -486908549 -83886557 -262145 -16842753 -1090519041
            -1073741825 -126020 -298156033</internalNodes>
          <leafValues>
            -7.8775513172149658e-01 9.3057852983474731e-01</leafValues></_>
        <_>
          <internalNodes>
            0 -1 2 -2029600305 -1996386291 67207200 -1794015205 164037
            243302402 537002153 2075625723</internalNodes>
          <leafValues>
            -8.2623821496963501e-01 8.6665827035903931e-01</leafValues></_></weakClassifiers></_>
    <!-- stage 3 -->
    <_>
      <maxWeakCount>2</maxWeakCount>
      <stageThreshold>8.2939170300960541e-02</stageThreshold>
      <weakClassifiers>
        <_>
          <internalNodes>
            0 -1 3 -879664043 -779931519 -4095935 -201326729 -1073723169
            -1954463739 -926981921 -1040151545</internalNodes>
          <leafValues>
            -8.3856505155563354e-01 8.8835728168487549e-01</leafValues></_>
        <_>
          <internalNodes>
            0 -1 8 227643251 38963457 -696139343 213943329 -913307489
            1271701522 -970468736 -272071000</internalNodes>
          <leafValues>
            -7.7581173181533813e-01 9.2150419950485229e-01</leafValues></_></weakClassifiers></_>
    <!-- stage 4 -->
    <_>
      <maxWeakCount>2</maxWeakCount>
      <stageThreshold>1.5155561268329620e-01</stageThreshold>
      <weakClassifiers>
        <_>
          <internalNodes>
            0 -1 15 -184553681 -353090670 2147483647 -521142274 -32929
            2139094895 -1600592477 -436207690</internalNodes>
          <leafValues>
            -6.9999998807907104e-01 9.3559324741363525e-01</leafValues></_>
        <_>
          <internalNodes>
            0 -1 9 -743534185 -1199363957 -1602046960 -887947232
            -1991135029 -1072328189 -1677683427 -131060966</internalNodes>
          <leafValues>
            -7.8403759002685547e-01 8.8442963361740112e-01</leafValues></_></weakClassifiers></_>
    <!-- stage 5 -->
    <_>
      <maxWeakCount>2</maxWeakCount>
      <stageThreshold>1.7404076457023621e-01</stageThreshold>
      <weakClassifiers>
        <_>
          <internalNodes>
            0 -1 11 -1342177281 -1358954497 -1 -1358954499 1073724921
            1073741823 1073698293 -2305</internalNodes>
          <leafValues>
            -6.6666668653488159e-01 9.3174064159393311e-01</leafValues></_>
        <_>
          <internalNodes>
            0 -1 14 1144378257 -223780829 22095056 -1064157799
            -1073462688 1477345288 -1995687398 -959719414</internalNodes>
          <leafValues>
            -7.5769984722137451e-01 8.7962472438812256e-01</leafValues></_></weakClassifiers></_>
    <!-- stage 6 -->
    <_>
      <maxWeakCount>2</maxWeakCount>
      <stageThreshold>1.1205416917800903e-01</stageThreshold>
      <weakClassifiers>
        <_>
          <internalNodes>
            0 -1 13 -21233793 2080372755 -9 -25231489 -1 -1 -8388749
            -499974337</internalNodes>
          <leafValues>
            -7.1887552738189697e-01 9.1347754001617432e-01</leafValues></_>
        <_>
          <internalNodes>
            0 -1 5 -502021033 -586608495 -2124324784 -800997049
            -1576482811 1879081495 -954039964 1997505054</internalNodes>
          <leafValues>
            -7.8832817077636719e-01 8.3092969655990601e-01</leafValues></_></weakClassifiers></_>
    <!-- stage 7 -->
    <_>
      <maxWeakCount>2</maxWeakCount>
      <stageThreshold>1.0040870308876038e-01</stageThreshold>
      <weakClassifiers>
        <_>
          <internalNodes>
            0 -1 7 -1828716801 -1358954499 -1073741825 -1342210049
            1073594367 1073741823 1065307641 -641</internalNodes>
          <leafValues>
            -7.3728811740875244e-01 8.8599348068237305e-01</leafValues></_>
        <_>
          <internalNodes>
            0 -1 0 -1392623663 -536969345 -2 -344193 -262184 -268435457
            2147418041 -99598536</internalNodes>
          <leafValues>
            -7.6082342863082886e-01 8.3769685029983521e-01</leafValues></_></weakClassifiers></_>
    <!-- stage 8 -->
    <_>
      <maxWeakCount>2</maxWeakCount>
      <stageThreshold>7.7573366463184357e-02</stageThreshold>
      <weakClassifiers>
        <_>
          <internalNodes>
            0 -1 17 -536871053 -956301325 -268437521 -352321537 -2185
            1199570815 -142416669 2013263871</internalNodes>
          <leafValues>
            -7.6415091753005981e-01 8.3385580778121948e-01</leafValues></_>
        <_>
          <internalNodes>
            0 -1 1 -1342455881 -1418919966 -2563 -3 805304249 805306365
            1073599993 -1075315337</internalNodes>
          <leafValues>
            -7.4601650238037109e-01 8.4172433614730835e-01</leafValues></_></weakClassifiers></_>
    <!-- stage 9 -->
    <_>
      <maxWeakCount>2</maxWeakCount>
      <stageThreshold>6.6463667899370193e-03</stageThreshold>
      <weakClassifiers>
        <_>
          <internalNodes>
            0 -1 4 -790626433 -32829 -1 -1 -65665 -1 -8421697 -502218913</internalNodes>
          <leafValues>
            -7.5813955068588257e-01 8.3937007188796997e-01</leafValues></_>
        <_>
          <internalNodes>
            0 -1 16 1360476187 -250492917 -1071561499 -494665531
            -267800575 1358955009 429009058 1653712907</internalNodes>
          <leafValues>
            -8.0970537662506104e-01 7.6478588581085205e-01</leafValues></_></weakClassifiers></_></stages>
  <features>
    <_>
      <rect>
        47 0 2 3</rect></_>
    <_>
      <rect>
        49 48 2 3</rect></_>
    <_>
      <rect>
        51 36 3 8</rect></_>
    <_>
      <rect>
        53 2 2 9</rect></_>
    <_>
      <rect>
        54 1 2 11</rect></_>
    <_>
      <rect>
        54 20 2 4</rect></_>
    <_>
      <rect>
        54 21 2 12</rect></_>
    <_>
      <rect>
        54 30 2 10</rect></_>
    <_>
      <rect>
        54 47 1 1</rect></_>
    <_>
      <rect>
        55 2 1 7</rect></_>
    <_>
      <rect>
        56 7 1 6</rect></_>
    <_>
      <rect>
        56 32 1 7</rect></_>
    <_>
      <rect>
        57 7 1 7</rect></_>
    <_>
      <rect>
        57 11 1 7</rect></_>
    <_>
      <rect>
        57 20 1 1</rect></_>
    <_>
      <rect>
        57 21 1 1</rect></_>
    <_>
      <rect>
        57 23 1 2</rect></_>
    <_>
      <rect>
        57 29 1 2</rect></_>
    <_>
      <rect>
        57 31 1 2</rect></_>
    <_>
      <rect>
        57 42 1 2</rect></_></features></cascade>
</opencv_storage>
