<?xml version="1.0"?>
<opencv_storage>
<stage11>
  <maxWeakCount>6</maxWeakCount>
  <stageThreshold>-9.5998984575271606e-01</stageThreshold>
  <weakClassifiers>
    <_>
      <internalNodes>
        0 -1 2714096 2012737535 802659295 -138048705 268411035 -20993601
        -273956470 -612107305 -263173</internalNodes>
      <leafValues>
        -7.3990041017532349e-01 1.8329466879367828e-01</leafValues></_>
    <_>
      <internalNodes>
        0 -1 2101940 1407136637 1028723039 437350261 1034928857
        176824315 1032328329 1591429631 248367587</internalNodes>
      <leafValues>
        -6.9743210077285767e-01 3.1612393260002136e-01</leafValues></_>
    <_>
      <internalNodes>
        0 -1 449277 1693479296 -682536331 1900624307 -812129905
        1920082602 -1155299141 -924868694 -212813050</internalNodes>
      <leafValues>
        -6.5097737312316895e-01 3.7905341386795044e-01</leafValues></_>
    <_>
      <internalNodes>
        0 -1 2718395 -1617562113 -11570661 -594423113 -501220897
        1806353242 -350648053 1528240966 1459595349</internalNodes>
      <leafValues>
        -6.4973127841949463e-01 4.3923261761665344e-01</leafValues></_>
    <_>
      <internalNodes>
        0 -1 756899 -541131342 -266812516 294160094 1593983047
        1510517688 -662131490 268989184 1259004862</internalNodes>
      <leafValues>
        -6.4581435918807983e-01 4.0446895360946655e-01</leafValues></_>
    <_>
      <internalNodes>
        0 -1 2629456 1581269493 -36499173 -777785865 -537036665
        -1981854727 -276258351 -288166677 -15046209</internalNodes>
      <leafValues>
        -5.4291623830795288e-01 5.1016199588775635e-01</leafValues></_></weakClassifiers></stage11>
</opencv_storage>
