<?xml version="1.0"?>
<opencv_storage>
<stage9>
  <maxWeakCount>4</maxWeakCount>
  <stageThreshold>-1.6096591949462891e+00</stageThreshold>
  <weakClassifiers>
    <_>
      <internalNodes>
        0 -1 2638021 -784336909 -274238561 -615656077 -12191411
        -516248065 -1883276375 551547380 1609543603</internalNodes>
      <leafValues>
        -7.9032260179519653e-01 3.8095238804817200e-01</leafValues></_>
    <_>
      <internalNodes>
        0 -1 2595554 -654833419 -675003529 -515639843 2101173559
        2065689528 -75359233 -742822934 -99447494</internalNodes>
      <leafValues>
        -6.4638131856918335e-01 4.8758485913276672e-01</leafValues></_>
    <_>
      <internalNodes>
        0 -1 2499318 -685245263 -1794621232 659674385 1606244432
        -1727272552 -1182170991 532468916 1575441452</internalNodes>
      <leafValues>
        -7.0172911882400513e-01 4.9575105309486389e-01</leafValues></_>
    <_>
      <internalNodes>
        0 -1 370266 -1056322782 -41696882 19419635 -1652961135
        -1979610449 -1416068894 -1723291553 1901560595</internalNodes>
      <leafValues>
        -6.6870629787445068e-01 4.8880803585052490e-01</leafValues></_></weakClassifiers></stage9>
</opencv_storage>
